float weights0[4][10] = {
  {
    -0.00486040, 0.09516370, 0.04591255, 0.01538403,
    -0.21182342, 0.02786963, 0.00323794, 0.12878595,
    -0.01868121,-0.00590241,
  },
  {
    -0.07113151,-0.23083945, 0.19500016, 0.10170973,
     0.02595137,-0.09971737,-0.02405933, 0.04805805,
    -0.01845033,-0.15543772,
  },
  {
    -0.25463542, 0.09172882, 0.15303989, 0.95361912,
     0.19142924,-0.55334145, 0.67675906,-0.15015951,
     0.83212233, 0.48336244,
  },
  {
     2.64800191, 0.23004134, 1.04236853,-2.19857192,
    -0.07771856,-3.08807206,-3.94035292,-2.06746840,
     2.52043939,-0.05838171,
  },
};

float bias0[10] = {
   0.50427961,-0.15771694, 0.65813595, 0.54912859,
  -0.15275525, 0.60821062, 0.07097220, 0.70251757,
   0.48325577, 0.67859322,
};

float weights1[10][10] = {
  {
    -0.44063279,-0.00000000,-0.00832663, 0.51900190,
     0.27474773,-0.00000005, 0.91415328,-0.22555183,
     0.79571342, 0.11259446,
  },
  {
     0.07628873,-0.00000000,-0.00464057,-0.12653127,
    -0.12817153,-0.00031578,-0.08227314,-0.20847780,
    -0.11683198,-0.13371588,
  },
  {
    -0.15429845,-0.00000000,-0.01251554, 0.01242361,
     0.07693627,-0.00000243, 0.21727076,-0.04363101,
     0.03971384,-0.00779669,
  },
  {
    -0.56178755,-0.00000000,-0.01125434,-0.03026785,
    -0.06771518,-0.00000054, 0.10844443,-0.71996349,
     0.14590961, 0.34805804,
  },
  {
    -0.00139385, 0.00000000, 0.00000005, 0.17287871,
    -0.07448187, 0.00000000,-0.02218467,-0.00005747,
     0.00997559,-0.13194269,
  },
  {
     0.22724310,-0.00000000,-0.00133661, 0.01484614,
    -0.51855737,-0.00000121,-0.48542109, 0.34709114,
    -0.39718562, 0.09948055,
  },
  {
    -0.77389532,-0.00000000,-0.00075525, 0.11607425,
    -0.24641241,-0.00000000, 0.31868771,-2.14126110,
     0.09486357, 0.51355141,
  },
  {
     0.15351897,-0.00000000,-0.00110660,-0.11625883,
    -0.10127328,-0.00049806, 0.24456179, 0.16287482,
     0.04261988, 0.07901858,
  },
  {
     0.58644098,-0.00000000,-0.00782346, 0.07808495,
     0.20680480,-0.00000007,-0.32488847,-0.02283076,
    -0.04026845,-0.93816018,
  },
  {
     0.16151778,-0.00000000,-0.00101839,-0.36399320,
     0.71754795,-0.00000000,-0.63626236, 0.02817429,
     0.11550719, 0.16099937,
  },
};

float bias1[10] = {
   0.25175768,-0.01053794, 0.01137189, 0.33470887,
   0.66361529,-0.00870818,-0.36640251, 0.95574743,
   0.97235972,-0.09808404,
};

float weights2[10][3] = {
  {
    -0.59410846, 0.18838455, 0.32249516,
  },
  {
     0.00000000,-0.00000000,-0.00000000,
  },
  {
    -0.00005798,-0.00003123, 0.00032687,
  },
  {
    -0.22693245, 0.18744670,-0.11932959,
  },
  {
     0.23215225, 0.00776687,-0.37660363,
  },
  {
     0.00000001,-0.00000240, 0.00000073,
  },
  {
    -0.00852435, 0.11490096,-0.57423514,
  },
  {
     0.30191424,-0.80674273, 0.47159347,
  },
  {
    -0.03253203,-0.50693905, 0.37586296,
  },
  {
     0.64915776,-0.75917804,-0.22741005,
  },
};

float bias2[3] = {
  -0.02893380,-0.03999844, 0.37717545,
};

