float weights0[3][10] = {
  {
    -0.01396397,-0.01794550, 0.03819098, 0.06905619,
    -0.00904907, 0.03988754, 0.01396742,-0.19413145,
     0.00875384, 0.08362745,
  },
  {
    -0.10984109,-0.23679437, 0.00252424, 0.12533142,
     0.06694476,-0.19911544,-0.17901115, 0.07249456,
    -0.01385769,-0.21443179,
  },
  {
     0.63448560,-0.16760440,-0.46804988, 0.11991801,
    -0.68932658, 0.79755688, 0.20138521, 0.15316698,
    -1.52910984,-0.32201838,
  },
};

float bias0[10] = {
   2.38435960, 1.34502423, 1.12914562, 0.09597843,
   1.72762990, 0.67614287,-2.42037225,-0.03858405,
  -1.02306390,-0.59126627,
};

float weights1[10][10] = {
  {
    -0.49991614,-1.17598462,-0.02796556, 0.57936120,
    -0.28295898,-0.00000000, 0.02245638, 0.30659023,
    -0.09105910, 0.41134810,
  },
  {
    -0.09483708,-0.13119142,-0.05623012,-0.07255083,
    -0.27352729,-0.00000000,-0.29553419,-0.45856690,
     0.08625600, 0.01288620,
  },
  {
     0.12657548,-0.16699818,-0.22240177, 0.00635559,
    -0.12883329,-0.00000000, 0.00589168, 0.21816042,
     0.05693063, 0.14700802,
  },
  {
     0.43354717, 0.11536849, 0.08184347,-0.10230836,
     0.11045862,-0.00000000,-0.05978841,-0.00974825,
     0.34106964,-0.05423656,
  },
  {
     0.29508165,-0.78565651, 0.70316023, 0.30212355,
    -0.35217145,-0.00000000,-0.35724637,-0.18274319,
     0.43260914,-0.38232610,
  },
  {
    -0.66918129, 0.16911125, 0.35441497, 0.19323388,
     0.12644532, 0.00000000,-0.05504240,-0.17849499,
     0.01995357, 0.07819315,
  },
  {
    -0.34315425,-0.61684155,-0.07971361,-0.06717785,
    -0.00977498,-0.00000000, 0.12420343, 0.26492882,
     0.01069567, 0.01080241,
  },
  {
    -0.20768782, 0.29179928,-0.17095034,-0.15451248,
     0.02911428,-0.00000000,-0.00000000,-0.28333554,
    -0.02641346, 0.06358960,
  },
  {
     0.07326242,-1.25076735,-0.19707783, 0.11109754,
    -3.77249002,-0.00000000, 0.12301274,-0.00731956,
     0.04729212, 0.02023398,
  },
  {
    -0.09160852, 0.08779620, 0.02913278,-0.20363760,
     0.14408460,-0.00000000, 0.17160536, 0.31670031,
    -0.23840909, 0.26439399,
  },
};

float bias1[10] = {
   0.49148870, 0.26259917,-0.19806574, 0.37973917,
  -1.70344758,-0.08949709,-1.64163864,-0.29562226,
   0.49873134, 0.17770177,
};

float weights2[10][3] = {
  {
     0.30153462,-0.40326163, 0.25454649,
  },
  {
    -0.03709635, 0.52080458,-0.70381498,
  },
  {
     0.19070156,-0.00530758,-0.44913459,
  },
  {
    -0.03778251,-0.39042130, 0.28096449,
  },
  {
     0.89208031,-0.66306198,-0.04555496,
  },
  {
     0.00000000,-0.00000000, 0.00000000,
  },
  {
    -1.92361462,-0.01764727, 0.79312330,
  },
  {
    -0.27795318, 0.30032828, 0.07209749,
  },
  {
     0.01150465, 0.20396307,-0.22144136,
  },
  {
     0.03504745,-0.21357597, 0.21668215,
  },
};

float bias2[3] = {
   0.07104433, 0.09621267, 0.17400731,
};

